digraph Tree {
node [shape=box] ;
0 [label="petal width (cm) <= 0.8\ngini = 0.553\nsamples = 50\nvalue = [25, 22, 3]\nclass = y[0]"] ;
1 [label="gini = 0.0\nsamples = 25\nvalue = [25, 0, 0]\nclass = y[0]"] ;
0 -> 1 [labeldistance=2.5, labelangle=45, headlabel="True"] ;
2 [label="petal width (cm) <= 1.65\ngini = 0.211\nsamples = 25\nvalue = [0, 22, 3]\nclass = y[1]"] ;
0 -> 2 [labeldistance=2.5, labelangle=-45, headlabel="False"] ;
3 [label="sepal width (cm) <= 2.3\ngini = 0.087\nsamples = 22\nvalue = [0, 21, 1]\nclass = y[1]"] ;
2 -> 3 ;
4 [label="gini = 0.0\nsamples = 1\nvalue = [0, 0, 1]\nclass = y[2]"] ;
3 -> 4 ;
5 [label="gini = 0.0\nsamples = 21\nvalue = [0, 21, 0]\nclass = y[1]"] ;
3 -> 5 ;
6 [label="gini = 0.444\nsamples = 3\nvalue = [0, 1, 2]\nclass = y[2]"] ;
2 -> 6 ;
}